digraph Tree {
node [shape=box, style="filled, rounded", color="black", fontname=helvetica] ;
edge [fontname=helvetica] ;
0 [label="petal length (cm) <= 5.05\ngini = 0.66\nsamples = 88\nvalue = [42, 50, 58]\nclass = virginica", fillcolor="#f5effd"] ;
1 [label="petal width (cm) <= 0.7\ngini = 0.54\nsamples = 60\nvalue = [42, 50, 4]\nclass = versicolor", fillcolor="#e2fbec"] ;
0 -> 1 [labeldistance=2.5, labelangle=45, headlabel="True"] ;
2 [label="gini = 0.0\nsamples = 28\nvalue = [42, 0, 0]\nclass = setosa", fillcolor="#e58139"] ;
1 -> 2 ;
3 [label="petal width (cm) <= 1.75\ngini = 0.14\nsamples = 32\nvalue = [0, 50, 4]\nclass = versicolor", fillcolor="#49e78b"] ;
1 -> 3 ;
4 [label="petal width (cm) <= 1.45\ngini = 0.04\nsamples = 28\nvalue = [0, 49, 1]\nclass = versicolor", fillcolor="#3de684"] ;
3 -> 4 ;
5 [label="gini = 0.0\nsamples = 17\nvalue = [0, 29, 0]\nclass = versicolor", fillcolor="#39e581"] ;
4 -> 5 ;
6 [label="petal length (cm) <= 4.95\ngini = 0.09\nsamples = 11\nvalue = [0, 20, 1]\nclass = versicolor", fillcolor="#43e687"] ;
4 -> 6 ;
7 [label="gini = 0.0\nsamples = 9\nvalue = [0, 17, 0]\nclass = versicolor", fillcolor="#39e581"] ;
6 -> 7 ;
8 [label="sepal width (cm) <= 2.6\ngini = 0.38\nsamples = 2\nvalue = [0, 3, 1]\nclass = versicolor", fillcolor="#7beeab"] ;
6 -> 8 ;
9 [label="gini = 0.0\nsamples = 1\nvalue = [0, 0, 1]\nclass = virginica", fillcolor="#8139e5"] ;
8 -> 9 ;
10 [label="gini = 0.0\nsamples = 1\nvalue = [0, 3, 0]\nclass = versicolor", fillcolor="#39e581"] ;
8 -> 10 ;
11 [label="sepal width (cm) <= 3.0\ngini = 0.38\nsamples = 4\nvalue = [0, 1, 3]\nclass = virginica", fillcolor="#ab7bee"] ;
3 -> 11 ;
12 [label="gini = 0.0\nsamples = 3\nvalue = [0, 0, 3]\nclass = virginica", fillcolor="#8139e5"] ;
11 -> 12 ;
13 [label="gini = 0.0\nsamples = 1\nvalue = [0, 1, 0]\nclass = versicolor", fillcolor="#39e581"] ;
11 -> 13 ;
14 [label="gini = 0.0\nsamples = 28\nvalue = [0, 0, 54]\nclass = virginica", fillcolor="#8139e5"] ;
0 -> 14 [labeldistance=2.5, labelangle=-45, headlabel="False"] ;
}